<?xml version="1.0"?>
<opencv_storage>
<cascade>
  <stageType>BOOST</stageType>
  <featureType>HAAR</featureType>
  <height>32</height>
  <width>32</width>
  <stageParams>
    <boostType>GAB</boostType>
    <minHitRate>9.9500000476837158e-01</minHitRate>
    <maxFalseAlarm>5.0000000000000000e-01</maxFalseAlarm>
    <weightTrimRate>9.4999998807907104e-01</weightTrimRate>
    <maxDepth>1</maxDepth>
    <maxWeakCount>100</maxWeakCount></stageParams>
  <featureParams>
    <maxCatCount>0</maxCatCount>
    <featSize>1</featSize>
    <mode>BASIC</mode></featureParams>
  <stageNum>7</stageNum>
  <stages>
    <!-- stage 0 -->
    <_>
      <maxWeakCount>3</maxWeakCount>
      <stageThreshold>-1.3421568870544434e+00</stageThreshold>
      <weakClassifiers>
        <_>
          <internalNodes>
            0 -1 10 -2.2300120443105698e-02</internalNodes>
          <leafValues>
            8.0645161867141724e-01 -9.7621405124664307e-01</leafValues></_>
        <_>
          <internalNodes>
            0 -1 3 1.5893448889255524e-01</internalNodes>
          <leafValues>
            -9.8323780298233032e-01 4.5514643192291260e-01</leafValues></_>
        <_>
          <internalNodes>
            0 -1 0 8.6488693952560425e-02</internalNodes>
          <leafValues>
            -9.8900151252746582e-01 6.1729508638381958e-01</leafValues></_></weakClassifiers></_>
    <!-- stage 1 -->
    <_>
      <maxWeakCount>2</maxWeakCount>
      <stageThreshold>-4.9000477790832520e-01</stageThreshold>
      <weakClassifiers>
        <_>
          <internalNodes>
            0 -1 5 1.5703935921192169e-01</internalNodes>
          <leafValues>
            -9.9193549156188965e-01 5.0000000000000000e-01</leafValues></_>
        <_>
          <internalNodes>
            0 -1 17 1.3571580871939659e-02</internalNodes>
          <leafValues>
            -9.8718392848968506e-01 5.0193071365356445e-01</leafValues></_></weakClassifiers></_>
    <!-- stage 2 -->
    <_>
      <maxWeakCount>3</maxWeakCount>
      <stageThreshold>-1.3818149566650391e+00</stageThreshold>
      <weakClassifiers>
        <_>
          <internalNodes>
            0 -1 11 -1.1468724347651005e-02</internalNodes>
          <leafValues>
            1. -9.6078431606292725e-01</leafValues></_>
        <_>
          <internalNodes>
            0 -1 16 -5.5287119001150131e-02</internalNodes>
          <leafValues>
            7.9034721851348877e-01 -9.3316429853439331e-01</leafValues></_>
        <_>
          <internalNodes>
            0 -1 4 2.5982331484556198e-02</internalNodes>
          <leafValues>
            -9.5978039503097534e-01 5.1213365793228149e-01</leafValues></_></weakClassifiers></_>
    <!-- stage 3 -->
    <_>
      <maxWeakCount>3</maxWeakCount>
      <stageThreshold>-1.5031577348709106e+00</stageThreshold>
      <weakClassifiers>
        <_>
          <internalNodes>
            0 -1 19 -2.7736168354749680e-02</internalNodes>
          <leafValues>
            5.2941179275512695e-01 -9.7216701507568359e-01</leafValues></_>
        <_>
          <internalNodes>
            0 -1 14 4.9395933747291565e-03</internalNodes>
          <leafValues>
            -8.9891380071640015e-01 6.1043310165405273e-01</leafValues></_>
        <_>
          <internalNodes>
            0 -1 13 5.9036344289779663e-02</internalNodes>
          <leafValues>
            -9.7954654693603516e-01 3.6792311072349548e-01</leafValues></_></weakClassifiers></_>
    <!-- stage 4 -->
    <_>
      <maxWeakCount>2</maxWeakCount>
      <stageThreshold>-6.5512454509735107e-01</stageThreshold>
      <weakClassifiers>
        <_>
          <internalNodes>
            0 -1 2 -2.8796352446079254e-02</internalNodes>
          <leafValues>
            1. -9.6270853281021118e-01</leafValues></_>
        <_>
          <internalNodes>
            0 -1 18 3.3951297402381897e-02</internalNodes>
          <leafValues>
            -1. 3.0758401751518250e-01</leafValues></_></weakClassifiers></_>
    <!-- stage 5 -->
    <_>
      <maxWeakCount>4</maxWeakCount>
      <stageThreshold>-2.0327739715576172e+00</stageThreshold>
      <weakClassifiers>
        <_>
          <internalNodes>
            0 -1 6 -1.5484732389450073e-01</internalNodes>
          <leafValues>
            7.7777779102325439e-01 -9.6841067075729370e-01</leafValues></_>
        <_>
          <internalNodes>
            0 -1 7 2.8753023594617844e-02</internalNodes>
          <leafValues>
            -9.2159152030944824e-01 8.5042560100555420e-01</leafValues></_>
        <_>
          <internalNodes>
            0 -1 8 -1.3272499665617943e-02</internalNodes>
          <leafValues>
            8.6667311191558838e-01 -7.5976985692977905e-01</leafValues></_>
        <_>
          <internalNodes>
            0 -1 1 5.4675526916980743e-02</internalNodes>
          <leafValues>
            -8.9578646421432495e-01 6.1699795722961426e-01</leafValues></_></weakClassifiers></_>
    <!-- stage 6 -->
    <_>
      <maxWeakCount>3</maxWeakCount>
      <stageThreshold>-1.0616160631179810e+00</stageThreshold>
      <weakClassifiers>
        <_>
          <internalNodes>
            0 -1 9 -4.1471436619758606e-02</internalNodes>
          <leafValues>
            1. -9.6463656425476074e-01</leafValues></_>
        <_>
          <internalNodes>
            0 -1 12 5.1037664525210857e-03</internalNodes>
          <leafValues>
            -9.2066311836242676e-01 1.</leafValues></_>
        <_>
          <internalNodes>
            0 -1 15 3.6563072353601456e-03</internalNodes>
          <leafValues>
            -8.5412341356277466e-01 8.2368367910385132e-01</leafValues></_></weakClassifiers></_></stages>
  <features>
    <_>
      <rects>
        <_>
          0 4 10 25 -1.</_>
        <_>
          5 4 5 25 2.</_></rects>
      <tilted>0</tilted></_>
    <_>
      <rects>
        <_>
          0 7 30 3 -1.</_>
        <_>
          10 7 10 3 3.</_></rects>
      <tilted>0</tilted></_>
    <_>
      <rects>
        <_>
          3 13 9 7 -1.</_>
        <_>
          6 13 3 7 3.</_></rects>
      <tilted>0</tilted></_>
    <_>
      <rects>
        <_>
          5 17 25 15 -1.</_>
        <_>
          5 22 25 5 3.</_></rects>
      <tilted>0</tilted></_>
    <_>
      <rects>
        <_>
          6 6 24 2 -1.</_>
        <_>
          14 6 8 2 3.</_></rects>
      <tilted>0</tilted></_>
    <_>
      <rects>
        <_>
          7 17 19 15 -1.</_>
        <_>
          7 22 19 5 3.</_></rects>
      <tilted>0</tilted></_>
    <_>
      <rects>
        <_>
          7 22 23 10 -1.</_>
        <_>
          7 27 23 5 2.</_></rects>
      <tilted>0</tilted></_>
    <_>
      <rects>
        <_>
          8 10 6 12 -1.</_>
        <_>
          10 10 2 12 3.</_></rects>
      <tilted>0</tilted></_>
    <_>
      <rects>
        <_>
          9 30 19 2 -1.</_>
        <_>
          9 31 19 1 2.</_></rects>
      <tilted>0</tilted></_>
    <_>
      <rects>
        <_>
          11 11 6 10 -1.</_>
        <_>
          13 11 2 10 3.</_></rects>
      <tilted>0</tilted></_>
    <_>
      <rects>
        <_>
          11 14 6 7 -1.</_>
        <_>
          13 14 2 7 3.</_></rects>
      <tilted>0</tilted></_>
    <_>
      <rects>
        <_>
          13 12 3 13 -1.</_>
        <_>
          14 12 1 13 3.</_></rects>
      <tilted>0</tilted></_>
    <_>
      <rects>
        <_>
          13 14 3 8 -1.</_>
        <_>
          14 14 1 8 3.</_></rects>
      <tilted>0</tilted></_>
    <_>
      <rects>
        <_>
          13 15 11 12 -1.</_>
        <_>
          13 21 11 6 2.</_></rects>
      <tilted>0</tilted></_>
    <_>
      <rects>
        <_>
          14 13 3 6 -1.</_>
        <_>
          15 13 1 6 3.</_></rects>
      <tilted>0</tilted></_>
    <_>
      <rects>
        <_>
          15 13 3 6 -1.</_>
        <_>
          16 13 1 6 3.</_></rects>
      <tilted>0</tilted></_>
    <_>
      <rects>
        <_>
          17 19 14 10 -1.</_>
        <_>
          17 19 7 5 2.</_>
        <_>
          24 24 7 5 2.</_></rects>
      <tilted>0</tilted></_>
    <_>
      <rects>
        <_>
          22 0 1 18 -1.</_>
        <_>
          22 6 1 6 3.</_></rects>
      <tilted>0</tilted></_>
    <_>
      <rects>
        <_>
          22 1 5 12 -1.</_>
        <_>
          22 7 5 6 2.</_></rects>
      <tilted>0</tilted></_>
    <_>
      <rects>
        <_>
          24 22 8 4 -1.</_>
        <_>
          28 22 4 4 2.</_></rects>
      <tilted>0</tilted></_></features></cascade>
</opencv_storage>
